svm_type c_svc
kernel_type polynomial
degree 2
gamma 1
coef0 0
nr_class 2
total_sv 5
rho 1.66667
label 1 -1
nr_sv 3 2
SV
1 1:-1 2:0 
0.2777777777777778 1:0 2:-2 
0.1666666666666667 1:-2 2:0 
-1 1:1 2:0 
-0.4444444444444444 1:0 2:-1 
