svm_type c_svc
kernel_type rbf
gamma 100
nr_class 2
total_sv 1783
rho -0.364671
label 1 0
nr_sv 989 794
SV
1 1:0.3410918 2:-4.5289375 
1 1:0.23100195 2:-2.88675 
1 1:0.20337891 2:-3.3363125 
1 1:0.44066992 2:-4.3504375 
0.8197989163596449 1:0.12761914 2:-3.1504375 
1 1:0.42295508 2:-4.58325 
1 1:0.33435352 2:-3.808875 
1 1:0.35011133 2:-4.5961875 
0.8444048425171947 1:0.30577539 2:-4.2723125 
1 1:0.30645703 2:-2.082 
1 1:0.33792773 2:-3.1846875 
0.9454661030077282 1:0.41233789 2:-5.5705 
1 1:0.33248828 2:-2.502 
0.2061574100446603 1:0.40496289 2:-6.0150625 
1 1:0.29694531 2:-3.1875 
0.3880901039569509 1:0.36280664 2:-5.8456875 
1 1:0.3785957 2:-3.982125 
1 1:0.35701172 2:-4.0114375 
1 1:0.29733594 2:-3.103625 
1 1:0.20225391 2:-2.3948125 
1 1:0.33430859 2:-3.2810625 
1 1:0.32277539 2:-3.7033125 
1 1:0.33418555 2:-2.956375 
1 1:0.36934766 2:-3.1859375 
0.1920589815986091 1:0.27851172 2:-5.1588125 
0.9132430522227142 1:0.4166543 2:-6.32025 
1 1:0.25451758 2:-1.7416875 
1 1:0.30048633 2:-3.50575 
1 1:0.33440625 2:-3.9676875 
1 1:0.24953906 2:-2.5758125 
1 1:0.34135156 2:-3.9849375 
0.3661158890081505 1:0.37868359 2:-4.4215 
1 1:0.29270117 2:-3.2854375 
1 1:0.36500586 2:-4.0619375 
1 1:0.22776367 2:-2.785125 
1 1:0.33098047 2:-2.8483125 
1 1:0.39789844 2:-2.9333125 
1 1:0.31657031 2:-3.592375 
1 1:0.21885156 2:-1.7906875 
1 1:0.31800195 2:-2.7066875 
1 1:0.19188281 2:-2.0279375 
1 1:0.29497461 2:-2.2556875 
1 1:0.28387305 2:-3.2044375 
1 1:0.23298633 2:-2.002375 
1 1:0.33290039 2:-3.62125 
1 1:0.22383594 2:-2.1114375 
1 1:0.40943945 2:-2.8265625 
1 1:0.31775 2:-3.28175 
0.1828149086198156 1:0.076144531 2:-1.757125 
0.004705357569599716 1:0.26702148 2:-5.8805 
0.1045393240759284 1:0.46189453 2:-4.7460625 
1 1:0.4447832 2:-5.192375 
1 1:0.44478125 2:-4.250625 
1 1:0.34373047 2:-3.911375 
0.2822930123379107 1:0.30793359 2:-6.8123125 
1 1:0.24226758 2:-5.4451875 
0.3863767721502923 1:0.20360742 2:-3.3480625 
0.3778225147067285 1:0.34991016 2:-4.7875 
0.3391401085396552 1:0.28956836 2:-6.3693125 
1 1:0.26678516 2:-2.513375 
0.686238756762097 1:0.36351563 2:-4.783125 
1 1:0.19375391 2:-2.2433125 
0.8415315536295424 1:0.27054883 2:-3.8561875 
1 1:0.31945313 2:-3.7214375 
1 1:0.3456543 2:-3.2239375 
0.434036876676736 1:0.19016016 2:-2.035125 
1 1:0.23073633 2:-3.6994375 
0.3723697097108 1:0.18525781 2:-3.2083125 
1 1:0.32058789 2:-2.162375 
0.6282401775714214 1:0.40533789 2:-6.4565 
1 1:0.19665234 2:-1.8435 
0.06890426138163823 1:0.24193359 2:-4.4168125 
0.01880497274076191 1:0.33174023 2:-5.8703125 
1 1:0.343625 2:-3.1510625 
0.05803394429828186 1:0.094105469 2:-1.25525 
1 1:0.26129492 2:-2.958625 
0.3519090714267017 1:0.23530273 2:-1.1014375 
1 1:0.20922266 2:-2.4875625 
1 1:0.23852734 2:-3.167 
1 1:0.47007031 2:-3.4156875 
0.9379953581584825 1:0.29525195 2:-4.3768125 
0.5106275089657623 1:0.20280859 2:-4.48875 
0.3466248471296777 1:0.39870508 2:-6.2614375 
1 1:0.32891211 2:-3.746125 
0.002934977075515659 1:0.33263477 2:-5.3505 
1 1:0.25126563 2:-2.5884375 
0.1119865464514307 1:0.17087891 2:-0.721875 
1 1:0.2579707 2:-2.818 
1 1:0.31813086 2:-3.305625 
1 1:0.29736914 2:-3.4948125 
1 1:0.37532617 2:-3.6785 
0.9658733607258456 1:0.21820898 2:-2.6646875 
1 1:0.28254102 2:-2.7315 
1 1:0.24461719 2:-3.759875 
1 1:0.30981836 2:-2.747 
1 1:0.2610918 2:-2.924625 
1 1:0.28346094 2:-1.1570625 
0.424572699293163 1:0.21100977 2:-3.42 
1 1:0.26345898 2:-4.1485 
1 1:0.28462109 2:-2.889125 
0.006081254309282415 1:0.25223437 2:-3.971 
0.5266475828695313 1:0.1092793 2:-0.1195 
0.9049844751813056 1:0.17793555 2:-1.9318125 
1 1:0.39472266 2:-4.070375 
1 1:0.26691406 2:-3.8111875 
0.8945082676687124 1:0.18969141 2:-2.3571875 
1 1:0.18283203 2:-1.520625 
0.01590226241358714 1:0.35225586 2:-5.7073125 
1 1:0.27315234 2:-2.730375 
1 1:0.29831641 2:-1.8839375 
0.02941716120347186 1:0.13518945 2:-1.040625 
1 1:0.22491602 2:-2.3835 
1 1:0.25205078 2:-2.93175 
1 1:0.29147852 2:-2.597125 
1 1:0.40959766 2:-4.346125 
1 1:0.31158398 2:-5.0321875 
1 1:0.27897461 2:-2.5580625 
1 1:0.4319082 2:-4.9931875 
1 1:0.43238867 2:-2.8535625 
0.9242283647420428 1:0.46158789 2:-6.3245 
1 1:0.32033984 2:-3.4545625 
1 1:0.10470117 2:-2.0403125 
0.2044961331513114 1:0.3985957 2:-4.82175 
1 1:0.35455664 2:-3.95475 
0.1782008145908786 1:0.11273828 2:-2.7833125 
0.1965488677928721 1:0.068253906 2:-1.364625 
1 1:0.25313672 2:-2.7315 
1 1:0.32633594 2:-3.9435 
1 1:0.35445117 2:-2.0418125 
0.2373824471866943 1:0.37238281 2:-5.6673125 
0.8144247953799563 1:0.29116406 2:-4.66075 
1 1:0.33055078 2:-3.4485 
1 1:0.37456445 2:-3.8265 
0.307862230375768 1:0.45618164 2:-6.5829375 
1 1:0.23009766 2:-1.691 
0.03160097518629719 1:0.22560547 2:-4.3295 
1 1:0.29933008 2:-3.1620625 
1 1:0.30196484 2:-2.5315 
0.01148944258701079 1:0.37798242 2:-5.36075 
0.03308357463807998 1:0.34221484 2:-5.6703125 
1 1:0.30962891 2:-2.9985 
1 1:0.2519707 2:-2.6255625 
1 1:0.30011328 2:-3.26075 
1 1:0.41484961 2:-3.875875 
1 1:0.30993359 2:-5.042375 
1 1:0.2994707 2:-3.6604375 
0.5140441044998694 1:0.52801953 2:-5.481 
0.06975470535660207 1:0.24236328 2:-2.9716875 
1 1:0.28832227 2:-3.2866875 
0.7932959145284433 1:0.17107227 2:-1.879375 
0.5533568149164925 1:0.45111328 2:-4.638 
1 1:0.21329102 2:-1.593375 
1 1:0.24764258 2:-2.31925 
0.9063818464670498 1:0.28788477 2:-4.9349375 
1 1:0.3485918 2:-4.0465625 
1 1:0.25099805 2:-3.2134375 
1 1:0.30496484 2:-3.691125 
1 1:0.29859766 2:-3.285875 
1 1:0.46312695 2:-4.068625 
0.05138297491619986 1:0.42146484 2:-5.1829375 
0.3212291310379657 1:0.17062695 2:-1.560375 
1 1:0.36505078 2:-3.2536875 
0.005649603196414318 1:0.22533789 2:-4.357625 
1 1:0.29157422 2:-3.5221875 
1 1:0.31746484 2:-3.2116875 
1 1:0.21916016 2:-2.79625 
1 1:0.29849609 2:-4.329875 
0.5296172484245601 1:0.36882813 2:-4.353 
0.9882325992211339 1:0.30238477 2:-4.3874375 
1 1:0.24810742 2:-2.2230625 
0.5361436255912181 1:0.3482832 2:-5.8353125 
0.4546537346793181 1:0.24325195 2:-0.4575625 
1 1:0.22049219 2:-2.84775 
1 1:0.26083398 2:-3.8071875 
1 1:0.21365234 2:-3.4150625 
1 1:0.40966797 2:-3.993875 
1 1:0.30438672 2:-2.5859375 
1 1:0.32357812 2:-3.277 
0.2002352810124129 1:0.071806641 2:-0.5965625 
0.007042384274229139 1:0.16311719 2:-0.6065 
1 1:0.43250195 2:-4.395375 
1 1:0.27411523 2:-3.071875 
1 1:0.34156445 2:-3.5378125 
1 1:0.37650977 2:-3.31375 
0.01865527945578954 1:0.25876172 2:-4.130375 
0.2118274720942837 1:0.36937305 2:-4.2505625 
0.4955194153402691 1:0.32683008 2:-4.0153125 
0.2917944631897602 1:0.25314258 2:-3.9844375 
1 1:0.35983789 2:-4.137 
0.4784470876311374 1:0.10040234 2:-2.00375 
0.3917296162003553 1:0.1780957 2:-3.2313125 
1 1:0.31178516 2:-2.6841875 
1 1:0.28626953 2:-2.63325 
1 1:0.3564082 2:-4.6351875 
0.2385436753518129 1:0.16332227 2:-0.216 
0.4499519593702701 1:0.1427832 2:-3.6198125 
1 1:0.30227734 2:-2.2331875 
1 1:0.31701953 2:-3.7220625 
1 1:0.28037109 2:-1.59875 
1 1:0.21647656 2:-1.9361875 
1 1:0.24942188 2:-1.6803125 
1 1:0.30717578 2:-3.554125 
1 1:0.23359961 2:-3.19325 
1 1:0.32233594 2:-3.5528125 
0.8934430714516081 1:0.20520508 2:-3.3331875 
0.2891639665283181 1:0.10053125 2:-1.1860625 
1 1:0.32863477 2:-3.693375 
0.01231592279958701 1:0.14101758 2:-2.5933125 
1 1:0.28302148 2:-3.572375 
1 1:0.41108008 2:-4.3343125 
0.03419238371594793 1:0.22020313 2:-4.3205625 
0.2213106671368691 1:0.41219531 2:-7.08375 
1 1:0.42868164 2:-3.7133125 
0.6018626948623295 1:0.25077539 2:-1.1349375 
0.05404246909465014 1:0.37899609 2:-5.7434375 
1 1:0.35747656 2:-4.5548125 
1 1:0.25036328 2:-3.019875 
0.4028667088148317 1:0.20934961 2:-3.377625 
1 1:0.4081543 2:-3.5719375 
0.06988118419304885 1:0.25239648 2:-4.017875 
0.1819597699923439 1:0.33484766 2:-6.761375 
1 1:0.21929688 2:-1.9210625 
1 1:0.30339062 2:-3.2913125 
1 1:0.30611523 2:-2.9101875 
1 1:0.35369336 2:-3.8585 
0.2178221777558706 1:0.34291602 2:-5.659125 
1 1:0.15420898 2:-1.619875 
1 1:0.47209961 2:-4.102375 
0.4211075459788167 1:0.18490625 2:-4.305 
1 1:0.2723418 2:-3.8523125 
1 1:0.3401875 2:-1.4686875 
1 1:0.29476172 2:-4.2281875 
1 1:0.32116602 2:-1.6766875 
1 1:0.21329492 2:-2.4545 
0.9761198309032492 1:0.23394336 2:-2.904 
1 1:0.25153906 2:-3.174125 
0.3652547869853204 1:0.25520117 2:-4.0563125 
1 1:0.34270508 2:-2.6396875 
1 1:0.48716016 2:-4.86025 
1 1:0.22915234 2:-1.374375 
1 1:0.27933008 2:-2.861125 
1 1:0.33480664 2:-2.5214375 
1 1:0.25565625 2:-1.4544375 
1 1:0.40971094 2:-4.368375 
1 1:0.39804688 2:-4.837375 
1 1:0.22255859 2:-2.02525 
1 1:0.31239258 2:-3.335375 
1 1:0.35457227 2:-3.133 
1 1:0.28976953 2:-3.163375 
1 1:0.34318555 2:-4.044125 
0.06695331707896333 1:0.33639062 2:-5.632125 
0.4983892719177406 1:0.25238086 2:-5.8245 
1 1:0.27779687 2:-2.887375 
1 1:0.27866992 2:-3.1021875 
1 1:0.29874609 2:-4.2219375 
0.8254501692578137 1:0.46201172 2:-5.260375 
1 1:0.32765234 2:-4.0785625 
0.2095862988145348 1:0.21677539 2:-1.36575 
0.2299972513354135 1:0.21825586 2:-3.408625 
0.08809848730644255 1:0.2920332 2:-4.6695 
1 1:0.20256055 2:-1.8050625 
0.5851383537254554 1:0.20248633 2:-1.470125 
1 1:0.21135742 2:-2.489 
0.3867854403370929 1:0.31603125 2:-3.776875 
1 1:0.23958398 2:-2.7159375 
1 1:0.24349805 2:-2.2509375 
0.3816897238913172 1:0.26716211 2:-0.6474375 
1 1:0.41253516 2:-4.57525 
1 1:0.18532422 2:-1.690875 
0.3199051032360635 1:0.20337109 2:-3.343875 
1 1:0.19689648 2:-1.5423125 
0.3489515208019028 1:0.24887109 2:-0.7735625 
0.2984510772956872 1:0.077960938 2:-0.51175 
1 1:0.44980664 2:-3.9481875 
0.727126879089586 1:0.1989707 2:-1.7538125 
1 1:0.36369141 2:-2.1930625 
1 1:0.25078516 2:-2.29325 
1 1:0.20061523 2:-1.3003125 
1 1:0.32398242 2:-3.5039375 
1 1:0.23345117 2:-1.063375 
1 1:0.28416211 2:-1.2368125 
0.07273628069468015 1:0.20324609 2:-0.926125 
1 1:0.28879492 2:-3.6378125 
0.2341506027955604 1:0.20375781 2:-3.5795625 
1 1:0.20150586 2:-2.223875 
0.3416710480065507 1:0.11673633 2:-2.6884375 
0.4226787616370916 1:0.24884961 2:-0.97475 
1 1:0.30758008 2:-4.352375 
0.06944319341349968 1:0.3470957 2:-5.6554375 
1 1:0.17897656 2:-3.216625 
1 1:0.30642578 2:-4.261 
0.1810242127699916 1:0.24298438 2:-3.9543125 
0.2108626121291266 1:0.28108203 2:-3.5603125 
0.07499279856856979 1:0.15448633 2:-3.7628125 
0.2368739412637526 1:0.067634766 2:-1.410875 
0.7974053350845437 1:0.21893164 2:-4.2990625 
0.8917100586208545 1:0.40245898 2:-4.9370625 
1 1:0.28633789 2:-3.591 
1 1:0.38073633 2:-3.9090625 
1 1:0.38706445 2:-4.7500625 
1 1:0.28401758 2:-3.2515625 
1 1:0.30668164 2:-3.5968125 
0.1645742841034837 1:0.33193359 2:-3.9718125 
1 1:0.25750977 2:-2.2086875 
1 1:0.31791016 2:-3.7708125 
0.7377128694991386 1:0.20330078 2:-3.322625 
1 1:0.48707422 2:-3.45225 
0.1144242498699632 1:0.3433125 2:-5.63875 
1 1:0.26771875 2:-2.972875 
0.05809827328632446 1:0.22709961 2:-3.6794375 
1 1:0.22813086 2:-2.677875 
1 1:0.40599219 2:-2.685625 
1 1:0.35265234 2:-4.1054375 
0.7277699880586564 1:0.231125 2:-0.94875 
1 1:0.24357227 2:-2.9170625 
1 1:0.42968359 2:-4.415625 
1 1:0.37522461 2:-4.0751875 
1 1:0.33538672 2:-3.9215625 
1 1:0.34663867 2:-2.43325 
0.366484834792626 1:0.060169922 2:-0.6791875 
1 1:0.21419336 2:-1.8233125 
0.8023871864909372 1:0.30871875 2:-4.3361875 
1 1:0.22320313 2:-2.806375 
1 1:0.19113086 2:-0.9529375 
1 1:0.30995703 2:-2.99925 
1 1:0.32399805 2:-3.6455625 
1 1:0.36791797 2:-1.7798125 
0.4973581668012095 1:0.15073828 2:-3.9104375 
0.2029426001880584 1:0.11468945 2:-2.700125 
0.9497317168990915 1:0.28936719 2:-4.1814375 
1 1:0.38985742 2:-2.2789375 
1 1:0.30313867 2:-3.5388125 
1 1:0.32626953 2:-3.5511875 
1 1:0.13342969 2:-2.5986875 
1 1:0.24451562 2:-2.5500625 
1 1:0.19193359 2:-1.929375 
0.312975769904615 1:0.34370508 2:-6.6133125 
0.1180855853033237 1:0.22076758 2:-3.50925 
1 1:0.44749609 2:-3.6575625 
1 1:0.27644531 2:-2.738125 
0.7281515650725738 1:0.27653711 2:-3.3175625 
1 1:0.23229883 2:-2.5465625 
0.002895294285971638 1:0.39774414 2:-6.05375 
1 1:0.29217773 2:-3.0855625 
1 1:0.45689844 2:-4.434625 
1 1:0.43435742 2:-3.4658125 
1 1:0.18168164 2:-1.866875 
0.4591043009502475 1:0.39798438 2:-6.242 
0.2677811083315808 1:0.26783984 2:-4.52525 
1 1:0.37414063 2:-4.146625 
0.07739389841347663 1:0.31331055 2:-5.447375 
0.624780312358124 1:0.2322793 2:-4.3825625 
0.009778158623215377 1:0.27169336 2:-5.148125 
1 1:0.22959961 2:-2.5274375 
0.7487420811767186 1:0.24679883 2:-3.1264375 
1 1:0.27471484 2:-2.5206875 
1 1:0.30963086 2:-2.8083125 
0.8800433988837516 1:0.24479297 2:-1.2194375 
1 1:0.38985547 2:-3.799625 
1 1:0.21798437 2:-2.28275 
1 1:0.26881055 2:-3.0364375 
1 1:0.20781641 2:-1.73425 
1 1:0.29874609 2:-4.3555625 
1 1:0.32364258 2:-0.9266875 
1 1:0.40190039 2:-4.0061875 
1 1:0.41519336 2:-4.189625 
1 1:0.38049805 2:-4.2808125 
0.03988267825705415 1:0.19823438 2:-3.312625 
1 1:0.23202734 2:-1.8263125 
1 1:0.29225195 2:-2.52325 
1 1:0.22368359 2:-2.012125 
1 1:0.22722266 2:-2.2946875 
1 1:0.19761133 2:-2.0180625 
0.4281938676287226 1:0.21471094 2:-3.5236875 
0.3450339042800574 1:0.23667383 2:-3.7280625 
1 1:0.22223242 2:-3.4744375 
1 1:0.1951543 2:-2.4258125 
1 1:0.31636133 2:-2.7805 
1 1:0.29560156 2:-2.88125 
1 1:0.30330469 2:-2.7196875 
0.6957566292818641 1:0.2099043 2:-3.5541875 
0.4254731912544929 1:0.27883984 2:-3.5875625 
1 1:0.29921875 2:-4.207375 
1 1:0.30803125 2:-3.0019375 
0.7459167198205739 1:0.29112109 2:-4.6861875 
0.1433991933647553 1:0.34023633 2:-5.672375 
0.01708602949157234 1:0.24957031 2:-3.7960625 
1 1:0.33392969 2:-4.0231875 
0.04420653820214305 1:0.18048437 2:-4.2701875 
1 1:0.41067188 2:-4.9038125 
0.6593068981822537 1:0.26073828 2:-4.4661875 
1 1:0.26800977 2:-2.4195 
0.1489996322822422 1:0.2971875 2:-5.19825 
1 1:0.27028711 2:-2.9045 
1 1:0.36425586 2:-4.5600625 
1 1:0.27479297 2:-3.251625 
0.02284039382387628 1:0.32768164 2:-3.8809375 
0.003451108783376767 1:0.25051172 2:-4.4695625 
0.827918421598043 1:0.23304492 2:-3.69675 
0.05499712981004098 1:0.2751875 2:-4.6055625 
1 1:0.23367578 2:-2.1321875 
0.2146316982526545 1:0.25738867 2:-4.4885 
1 1:0.38264844 2:-5.1065 
0.543329555366234 1:0.27766797 2:-3.8261875 
1 1:0.18350195 2:-2.1923125 
0.1310434971963096 1:0.20789648 2:-4.8635625 
1 1:0.38944922 2:-2.8925625 
1 1:0.26929297 2:-2.8614375 
1 1:0.26537109 2:-3.0890625 
1 1:0.38280273 2:-4.365125 
0.640741269922329 1:0.1310332 2:-3.0138125 
1 1:0.33487109 2:-3.044875 
0.4866679073990033 1:0.37858984 2:-6.0868125 
1 1:0.32547656 2:-3.5169375 
1 1:0.23971289 2:-2.3139375 
0.8328577753573728 1:0.38570117 2:-6.1624375 
1 1:0.49560547 2:-4.876 
0.9743405174208279 1:0.46247266 2:-6.5006875 
0.02229244082880866 1:0.29970312 2:-5.043875 
0.3048205719413798 1:0.35151367 2:-5.6770625 
0.7108226381959407 1:0.25320117 2:-3.239875 
0.4035786047038902 1:0.25950391 2:-5.104375 
1 1:0.18617969 2:-3.2291875 
1 1:0.33358984 2:-2.0735 
0.6696136359899886 1:0.47258203 2:-5.1478125 
1 1:0.24683398 2:-3.15875 
1 1:0.27886328 2:-2.8150625 
1 1:0.27945898 2:-3.1124375 
1 1:0.33678711 2:-3.9640625 
1 1:0.24440234 2:-2.9349375 
1 1:0.45806641 2:-2.8064375 
0.04850008688777802 1:0.38851953 2:-5.6038125 
1 1:0.33355664 2:-3.210625 
0.3078245429301703 1:0.20406445 2:-1.2705625 
0.7868560270527092 1:0.17159961 2:-0.75375 
1 1:0.37282422 2:-4.1736875 
1 1:0.25325586 2:-2.34125 
1 1:0.39117773 2:-4.3866875 
1 1:0.28838281 2:-3.5944375 
1 1:0.38054102 2:-4.196375 
1 1:0.39165625 2:-3.201875 
0.6043664843139868 1:0.41826953 2:-5.916375 
0.3130221589622136 1:0.41155273 2:-6.8126875 
1 1:0.31787891 2:-2.8479375 
0.1553547652137915 1:0.12785937 2:-3.4310625 
0.6891602140291645 1:0.32580078 2:-5.342 
1 1:0.38961328 2:-2.5674375 
1 1:0.30931641 2:-2.750125 
0.588773017953971 1:0.53747656 2:-5.9125 
1 1:0.37639453 2:-2.792375 
0.5407280556428677 1:0.3757207 2:-4.5140625 
1 1:0.49851172 2:-4.012375 
1 1:0.25284766 2:-1.5586875 
1 1:0.34680664 2:-2.6586875 
1 1:0.32651172 2:-2.089 
0.4574172081128336 1:0.31873438 2:-5.045375 
0.03916646665174014 1:0.22402539 2:-2.560375 
1 1:0.25475977 2:-3.0795 
1 1:0.20885547 2:-2.3333125 
0.09825436867580124 1:0.27357227 2:-4.515875 
1 1:0.34861719 2:-3.627625 
1 1:0.26035937 2:-1.318125 
1 1:0.26051563 2:-3.0916875 
0.2590351819962144 1:0.15591602 2:-3.776625 
1 1:0.26091406 2:-2.994125 
1 1:0.18579297 2:-1.535625 
0.08604141189539846 1:0.33609766 2:-5.6264375 
0.001742297740357192 1:0.26944727 2:-3.795375 
1 1:0.4163418 2:-3.113875 
0.7375365589029481 1:0.1959375 2:-2.11625 
0.01597269112248685 1:0.083269531 2:-1.9089375 
0.3717058108767705 1:0.077263672 2:-1.0995 
1 1:0.22082812 2:-2.6729375 
1 1:0.20934766 2:-2.263375 
0.05512392341872917 1:0.29868555 2:-5.44775 
0.3035264330414093 1:0.18941211 2:-4.615375 
1 1:0.25332031 2:-3.16875 
1 1:0.20646875 2:-2.1166875 
1 1:0.27666992 2:-2.86875 
0.1505370580481096 1:0.18776562 2:-4.5545625 
0.7480655360796535 1:0.30045117 2:-5.435 
1 1:0.22798828 2:-2.3349375 
1 1:0.23383398 2:-2.8864375 
0.2560877402307337 1:0.23544531 2:-5.3535 
0.1669116404521024 1:0.26038281 2:-4.149125 
0.6637329940793283 1:0.34402344 2:-5.874 
0.2561300112578353 1:0.24426367 2:-5.466 
0.1100803211339748 1:0.16170898 2:-3.8336875 
1 1:0.38328516 2:-4.62175 
1 1:0.4074082 2:-3.9875 
0.01428350755506931 1:0.2464082 2:-3.9310625 
0.8411070403358359 1:0.43591602 2:-5.860375 
1 1:0.25452539 2:-1.412375 
1 1:0.27808203 2:-3.8909375 
0.3463145511049674 1:0.26012891 2:-0.84825 
0.5741302737824491 1:0.19995117 2:-4.736 
0.09412051302347299 1:0.099912109 2:-0.2281875 
1 1:0.24561719 2:-2.2079375 
0.3790023707278646 1:0.15744727 2:-3.6728125 
0.0741071224721903 1:0.22680273 2:-4.3693125 
1 1:0.24032227 2:-2.5743125 
1 1:0.34348242 2:-3.792 
0.6892501641422619 1:0.22622461 2:-3.44825 
1 1:0.39061133 2:-3.7198125 
1 1:0.22804492 2:-3.699125 
1 1:0.34100781 2:-3.5708125 
0.02316459448457826 1:0.33615625 2:-4.82075 
1 1:0.27839453 2:-2.256625 
1 1:0.34244141 2:-3.0976875 
0.08136942387533221 1:0.35058203 2:-5.5184375 
1 1:0.48474609 2:-6.674125 
1 1:0.36560547 2:-4.0115625 
0.3126651802933269 1:0.42489258 2:-5.367 
0.1023076280827449 1:0.27007617 2:-3.8908125 
1 1:0.28249414 2:-2.825 
1 1:0.40465039 2:-3.5784375 
1 1:0.25330078 2:-2.620125 
1 1:0.18132617 2:-3.2220625 
0.3779001961391832 1:0.22549609 2:-5.097125 
0.2170579503305669 1:0.13378516 2:-3.048875 
1 1:0.18408398 2:-1.84125 
1 1:0.29553906 2:-3.6444375 
1 1:0.26292969 2:-2.64375 
1 1:0.32594336 2:-3.5015 
1 1:0.33538281 2:-3.271875 
1 1:0.45030664 2:-4.5109375 
1 1:0.38406055 2:-4.01 
0.7256248817647537 1:0.14380859 2:-2.602 
1 1:0.31895703 2:-3.3794375 
1 1:0.30638672 2:-3.60425 
1 1:0.24695898 2:-2.8726875 
1 1:0.27269141 2:-2.4061875 
1 1:0.27074414 2:-3.84525 
1 1:0.40238867 2:-4.4288125 
0.1149847715814408 1:0.17312305 2:-0.571875 
1 1:0.24682813 2:-3.020875 
0.7711776771672216 1:0.12804883 2:-2.8983125 
0.3156685167828764 1:0.3155957 2:-4.250125 
0.5203290614092789 1:0.32173438 2:-3.9305 
0.187565619642902 1:0.29419531 2:-5.00075 
0.02396176658979678 1:0.25391016 2:-3.94825 
0.07764368058744864 1:0.087685547 2:-0.4531875 
1 1:0.31226367 2:-3.6335625 
0.9179290616277886 1:0.3218125 2:-4.0596875 
1 1:0.34258594 2:-4.0031875 
0.006867191006761226 1:0.22619531 2:-4.3410625 
0.2647729222653152 1:0.23025 2:-4.340625 
1 1:0.35527734 2:-2.8031875 
1 1:0.43747852 2:-3.440125 
0.4544110519005514 1:0.51403125 2:-6.2425 
1 1:0.18489648 2:-2.2105625 
0.2155855704078049 1:0.2544375 2:-4.094875 
0.4586075835926546 1:0.20130273 2:-2.4938125 
0.6480768744939326 1:0.13299805 2:-2.9773125 
0.7402478991847901 1:0.38236328 2:-5.1270625 
1 1:0.28405273 2:-2.7609375 
0.06368336411024715 1:0.35045508 2:-5.5129375 
0.7597576037678635 1:0.093474609 2:-2.29 
0.1087608125246432 1:0.16586328 2:-4.110875 
1 1:0.22306445 2:-2.1304375 
0.01919729399007006 1:0.29255078 2:-4.3645 
0.6795234915838286 1:0.18665039 2:-4.4296875 
1 1:0.38253711 2:-4.640375 
0.2228287372085432 1:0.23004102 2:-4.380125 
1 1:0.23113867 2:-2.8440625 
1 1:0.38785547 2:-6.0408125 
1 1:0.32640039 2:-3.9146875 
0.3398177840724638 1:0.35314844 2:-5.3280625 
0.1046650764943686 1:0.17012109 2:-0.9794375 
0.4627254478576407 1:0.26006055 2:-4.025625 
1 1:0.22633984 2:-2.71225 
1 1:0.32193164 2:-3.7441875 
0.4629767679888718 1:0.23102539 2:-0.31325 
1 1:0.29218359 2:-3.6641875 
0.7196828430100504 1:0.29203516 2:-4.9071875 
0.2448882064532665 1:0.19902344 2:-3.5900625 
1 1:0.28443359 2:-2.0958125 
1 1:0.23073047 2:-1.6185625 
1 1:0.43398242 2:-2.614875 
0.7655078546001929 1:0.45663086 2:-6.1100625 
1 1:0.36822461 2:-3.207625 
0.07699603841767544 1:0.23816016 2:-3.161375 
1 1:0.23630273 2:-1.0464375 
1 1:0.43701758 2:-4.488375 
1 1:0.38616211 2:-3.214625 
0.3163878543364278 1:0.24222656 2:-5.4225625 
1 1:0.19752148 2:-2.3913125 
0.116047587200423 1:0.29558789 2:-5.2064375 
1 1:0.30742383 2:-3.268875 
1 1:0.29252734 2:-2.577 
1 1:0.29430664 2:-3.5336875 
1 1:0.25026758 2:-2.719625 
1 1:0.27103711 2:-3.3648125 
1 1:0.32322656 2:-3.5009375 
0.338908607781815 1:0.22599609 2:-5.2086875 
0.226092090987622 1:0.25176172 2:-4.0845 
0.00124581288883458 1:0.24902539 2:-4.4651875 
1 1:0.2743457 2:-3.3559375 
0.335442669936092 1:0.22541211 2:-5.2675 
1 1:0.34807617 2:-3.3745 
1 1:0.23117383 2:-1.6263125 
0.214070362863668 1:0.21189258 2:-4.8935 
1 1:0.29859766 2:-4.4423125 
1 1:0.22355273 2:-2.8776875 
1 1:0.36907031 2:-3.72325 
1 1:0.37413281 2:-4.75325 
1 1:0.34518164 2:-3.089625 
0.0387684944728568 1:0.26124219 2:-4.48975 
1 1:0.2531543 2:-3.0548125 
1 1:0.30327344 2:-3.6006875 
0.3894078076125667 1:0.36801953 2:-6.04 
1 1:0.24790234 2:-2.0054375 
0.1571453121737362 1:0.19660547 2:-3.6106875 
0.3506179019974025 1:0.1295293 2:-3.367125 
0.1350307914095614 1:0.23031836 2:-4.3780625 
0.5588748424776311 1:0.090146484 2:-2.255375 
0.04288855375974476 1:0.11510742 2:-2.670625 
0.3952224141473742 1:0.15964258 2:-4.055 
0.3235258276078999 1:0.26014062 2:-5.9321875 
0.4271589949924637 1:0.076214844 2:-0.8195 
1 1:0.34413281 2:-2.960375 
1 1:0.25038867 2:-3.137 
0.2074751711589103 1:0.19669336 2:-2.1111875 
0.4277462160939586 1:0.44400781 2:-5.9770625 
1 1:0.29769922 2:-3.3219375 
1 1:0.26974414 2:-2.4686875 
0.3242283860779497 1:0.39941406 2:-5.231875 
1 1:0.41063281 2:-3.0335 
1 1:0.29588281 2:-5.0153125 
1 1:0.40826563 2:-3.8423125 
1 1:0.19974219 2:-2.46175 
0.1386313527587189 1:0.27291406 2:-4.54875 
1 1:0.24451758 2:-2.7610625 
1 1:0.35262109 2:-3.0621875 
1 1:0.2990332 2:-2.155 
1 1:0.37672852 2:-2.83925 
1 1:0.40715039 2:-4.4429375 
1 1:0.40497656 2:-2.8505625 
1 1:0.39553906 2:-4.077875 
1 1:0.27688086 2:-3.00525 
0.2751660446628412 1:0.34759375 2:-5.3243125 
0.03266305348495795 1:0.26040039 2:-4.4934375 
1 1:0.34779297 2:-3.0171875 
0.6375865910638816 1:0.28905469 2:-3.669375 
0.04762886776548547 1:0.26240039 2:-4.5095625 
1 1:0.26649414 2:-2.323875 
1 1:0.369375 2:-4.5480625 
1 1:0.3217832 2:-2.419625 
1 1:0.2951543 2:-3.1799375 
1 1:0.3555332 2:-3.0255 
0.2279594172884488 1:0.43492188 2:-5.8491875 
0.08528363373889788 1:0.2325 2:-3.7203125 
1 1:0.25304492 2:-2.577 
1 1:0.28017773 2:-4.6630625 
0.6601701054986349 1:0.20410352 2:-5.0283125 
1 1:0.23149414 2:-3.71125 
0.07280196101014948 1:0.25603906 2:-5.0956875 
1 1:0.39812109 2:-4.224375 
0.9638491477848724 1:0.27809375 2:-4.651125 
0.753736725140093 1:0.14642578 2:-1.6275625 
0.1686869195999668 1:0.087019531 2:-2.105 
1 1:0.35793945 2:-3.3578125 
1 1:0.39202148 2:-4.8614375 
1 1:0.39500586 2:-4.4770625 
0.2170981165137365 1:0.088917969 2:-0.41075 
1 1:0.32936133 2:-2.6848125 
1 1:0.47303906 2:-4.5331875 
1 1:0.22366992 2:-1.713625 
1 1:0.33401758 2:-3.5395 
1 1:0.32199414 2:-3.3899375 
1 1:0.23141602 2:-3.70475 
0.02169177087109902 1:0.27218164 2:-4.5251875 
1 1:0.33609961 2:-3.7926875 
1 1:0.2793418 2:-3.8708125 
0.4629870109754135 1:0.28295508 2:-0.9159375 
0.2754666709786488 1:0.19636914 2:-3.620125 
0.4536785740695188 1:0.34149805 2:-4.603125 
1 1:0.37358398 2:-1.4289375 
1 1:0.28070703 2:-3.386625 
1 1:0.38399414 2:-3.8518125 
0.1008881933543994 1:0.44727148 2:-5.6630625 
0.7567741306012887 1:0.36859961 2:-5.0895625 
1 1:0.4497168 2:-4.510125 
0.0300442140146234 1:0.44730469 2:-5.969375 
0.4604369413349129 1:0.40866992 2:-6.1975625 
1 1:0.23867578 2:-2.756 
0.1407901525797893 1:0.41330273 2:-6.1581875 
0.004176028679151605 1:0.25650781 2:-4.108625 
0.03972461640664655 1:0.35639844 2:-5.66275 
1 1:0.27480078 2:-3.3963125 
1 1:0.30215625 2:-3.0803125 
0.3419873483057685 1:0.079349609 2:-1.6896875 
0.09362223250373945 1:0.24784766 2:-3.7591875 
0.7755723383447578 1:0.37445117 2:-4.3005625 
1 1:0.21971289 2:-3.4724375 
0.3447784442973504 1:0.28567383 2:-3.5205 
1 1:0.37324023 2:-3.38975 
1 1:0.30438281 2:-3.43725 
1 1:0.29839258 2:-3.6773125 
0.9258943000292754 1:0.20086914 2:-3.31725 
1 1:0.23986133 2:-2.677 
1 1:0.21851953 2:-2.33275 
1 1:0.32717578 2:-3.737625 
1 1:0.28992578 2:-2.24675 
0.0572473077730293 1:0.2657168 2:-4.5379375 
1 1:0.35313672 2:-3.7525625 
1 1:0.24664258 2:-2.0425625 
1 1:0.29119141 2:-3.1743125 
1 1:0.38183594 2:-2.5176875 
1 1:0.32254492 2:-3.2290625 
0.04558033086169649 1:0.36061719 2:-4.7583125 
1 1:0.24798438 2:-1.645375 
1 1:0.29499023 2:-2.921 
0.2054972008733686 1:0.1582207 2:-0.76625 
1 1:0.24219531 2:-1.26275 
1 1:0.30561719 2:-4.2335 
0.4625813699274391 1:0.16263281 2:-4.21425 
1 1:0.28290039 2:-3.3270625 
0.1644276859802362 1:0.34544727 2:-5.52875 
0.06978729898770238 1:0.22179883 2:-4.311125 
1 1:0.23100195 2:-2.6498125 
0.1592992519178 1:0.27041016 2:-4.537625 
1 1:0.34039258 2:-4.108125 
1 1:0.36108594 2:-3.895375 
0.4248043435018331 1:0.24048633 2:-3.747625 
1 1:0.33679883 2:-3.4530625 
1 1:0.30251172 2:-3.3386875 
1 1:0.39397461 2:-3.8175 
0.8516370019471962 1:0.30195117 2:-4.4536875 
0.488772352484979 1:0.093445313 2:-1.990875 
1 1:0.32649414 2:-4.8268125 
1 1:0.31943359 2:-2.8864375 
1 1:0.33693945 2:-3.259875 
0.05298230654167596 1:0.39480273 2:-5.77025 
1 1:0.46754492 2:-5.648125 
1 1:0.40025 2:-3.6605 
1 1:0.30610937 2:-4.347125 
0.1562884403817068 1:0.13778906 2:-3.1403125 
1 1:0.29958203 2:-3.055375 
0.490936225722972 1:0.29301563 2:-5.014 
0.5221189186634266 1:0.24896289 2:-5.6844375 
1 1:0.30482617 2:-3.0379375 
1 1:0.35208398 2:-2.5773125 
0.2679987725391065 1:0.30863281 2:-4.3255 
1 1:0.26474414 2:-4.135375 
0.03258510906903912 1:0.22853516 2:-4.3628125 
1 1:0.401375 2:-3.7811875 
1 1:0.24919336 2:-3.9710625 
1 1:0.33640234 2:-3.262875 
0.324355758840754 1:0.27979687 2:-4.1613125 
0.05709286003438583 1:0.27080273 2:-4.5884375 
1 1:0.41133203 2:-3.5669375 
1 1:0.30291602 2:-0.991625 
1 1:0.31554102 2:-1.5011875 
0.3387766058690306 1:0.47638086 2:-5.2835625 
0.8668961563733694 1:0.22609766 2:-3.4574375 
1 1:0.31878516 2:-2.9740625 
1 1:0.38608594 2:-4.26 
1 1:0.24112305 2:-2.88025 
0.149297514927842 1:0.1945957 2:-4.7073125 
0.007237235850997823 1:0.12846289 2:-2.95275 
1 1:0.48124219 2:-4.2619375 
0.0296050708396076 1:0.40545312 2:-6.2274375 
1 1:0.39028711 2:-4.6720625 
1 1:0.29498828 2:-3.6255 
0.9593372992294815 1:0.63630273 2:-3.811125 
1 1:0.43359375 2:-3.0754375 
0.5742519259896854 1:0.40119336 2:-7.3266875 
1 1:0.38100195 2:-4.0913125 
0.02055854943780585 1:0.2164375 2:-0.5284375 
1 1:0.21150586 2:-3.543 
1 1:0.20570898 2:-3.3461875 
0.02034197191942236 1:0.26789844 2:-4.5989375 
0.3425272670881374 1:0.35631055 2:-5.519 
1 1:0.26128711 2:-4.145875 
0.1558546304409693 1:0.27466602 2:-6.4654375 
0.2948879427636734 1:0.42124023 2:-5.3928125 
0.01994464798441956 1:0.35097461 2:-5.6483125 
1 1:0.22480859 2:-2.255625 
1 1:0.22933008 2:-1.4585 
0.1823707548763858 1:0.34576953 2:-4.79525 
1 1:0.50546875 2:-2.978125 
1 1:0.4310957 2:-3.0286875 
1 1:0.39603125 2:-4.306 
0.006935768586923666 1:0.20953125 2:-2.31975 
0.3949329167422459 1:0.39371289 2:-5.3565 
1 1:0.34011914 2:-4.586625 
1 1:0.33252148 2:-2.671125 
0.1563102386515766 1:0.41813477 2:-4.671875 
1 1:0.27323828 2:-3.409 
1 1:0.25547266 2:-3.1161875 
1 1:0.2628418 2:-2.9529375 
1 1:0.33732617 2:-2.0031875 
1 1:0.38274609 2:-3.323375 
1 1:0.3116875 2:-3.424125 
0.4192378006002034 1:0.35423242 2:-3.837 
1 1:0.46185352 2:-4.74475 
1 1:0.41732812 2:-3.825625 
1 1:0.32971875 2:-3.6864375 
1 1:0.33603906 2:-3.70375 
1 1:0.2912832 2:-3.3300625 
0.2626207467909232 1:0.29275781 2:-4.2250625 
0.2340354558167057 1:0.39505078 2:-4.75675 
0.5368314769870901 1:0.43663086 2:-4.5245 
1 1:0.24621484 2:-2.1268125 
1 1:0.26848047 2:-2.389375 
1 1:0.29956055 2:-4.238375 
1 1:0.3421875 2:-3.4231875 
1 1:0.3277207 2:-3.7340625 
1 1:0.45179883 2:-3.507 
1 1:0.56246484 2:-4.2535625 
0.4180904736557931 1:0.046820312 2:-0.9586875 
0.06185350782119377 1:0.067253906 2:-1.4940625 
0.005366790472691058 1:0.19077344 2:-3.2408125 
0.03968643103565729 1:0.29557227 2:-4.465 
0.177455841884403 1:0.29606055 2:-4.3289375 
1 1:0.21107031 2:-2.5110625 
1 1:0.21903711 2:-2.3874375 
1 1:0.25545898 2:-4.041 
0.05581291209533777 1:0.36280859 2:-5.7243125 
0.2259404252354644 1:0.29311328 2:-4.3414375 
1 1:0.25980859 2:-2.995 
0.1478668596141283 1:0.105875 2:-2.0600625 
1 1:0.25639453 2:-2.3706875 
1 1:0.31054492 2:-4.243875 
0.2175471714116798 1:0.21485938 2:-2.81125 
0.2759925682410357 1:0.30711719 2:-6.25125 
0.2584563226940341 1:0.26615234 2:-6.0169375 
0.08070771960485019 1:0.24755078 2:-4.476 
1 1:0.26586328 2:-1.8378125 
1 1:0.19230078 2:-1.6540625 
1 1:0.33104102 2:-2.396 
1 1:0.29282812 2:-3.0000625 
1 1:0.36771484 2:-4.042875 
1 1:0.27030078 2:-1.6701875 
1 1:0.46342969 2:-3.82325 
0.3977040959340113 1:0.41792383 2:-5.6728125 
1 1:0.45973828 2:-3.94875 
0.3480521914587245 1:0.23528906 2:-5.5748125 
0.6029105739111402 1:0.22573437 2:-5.1725625 
1 1:0.25363281 2:-2.1921875 
1 1:0.4510293 2:-4.106875 
0.6903629850571866 1:0.1527168 2:-1.0211875 
0.3508118630868419 1:0.26445117 2:-6.1681875 
1 1:0.26888086 2:-3.809625 
0.02463825050500778 1:0.28005078 2:-4.63375 
1 1:0.31439063 2:-1.372 
1 1:0.43722656 2:-4.279375 
1 1:0.2700332 2:-3.06725 
0.8020147230585135 1:0.21939063 2:-4.302 
1 1:0.34213672 2:-2.21525 
1 1:0.31833984 2:-3.9101875 
0.02143402347779295 1:0.16120703 2:-0.412125 
0.008929869980804646 1:0.16234766 2:-0.581 
0.2958289909894593 1:0.28729883 2:-5.168375 
1 1:0.25445313 2:-3.2235625 
0.4048593005563962 1:0.5255957 2:-5.70775 
1 1:0.35279102 2:-1.1444375 
1 1:0.37254492 2:-3.54475 
0.03410767895388306 1:0.26298828 2:-4.5124375 
1 1:0.30228516 2:-4.418375 
1 1:0.32062891 2:-3.608625 
0.002940794213170179 1:0.24388672 2:-4.416375 
1 1:0.4075293 2:-3.602375 
0.1497557093235209 1:0.24347461 2:-0.5854375 
0.29853456926215 1:0.27020117 2:-4.633875 
1 1:0.35893164 2:-4.5775 
0.9956900290576701 1:0.28805859 2:-4.6735 
1 1:0.28167188 2:-1.3150625 
0.9904170335407162 1:0.3429043 2:-4.523625 
1 1:0.20847656 2:-2.4965625 
1 1:0.25854297 2:-1.9469375 
1 1:0.33880469 2:-3.9513125 
1 1:0.21907617 2:-2.309 
1 1:0.30881055 2:-3.461625 
1 1:0.24589844 2:-2.381375 
1 1:0.27432812 2:-1.215 
1 1:0.38547461 2:-3.8594375 
1 1:0.19609766 2:-1.8271875 
0.2958064855697064 1:0.28741406 2:-6.508375 
0.1396411062194898 1:0.41494922 2:-6.254125 
0.3570846524143498 1:0.47537305 2:-4.7585 
0.7128129880185253 1:0.38399023 2:-4.735 
0.0621708372203618 1:0.33357617 2:-5.66975 
0.09531059941227758 1:0.29271875 2:-4.6921875 
1 1:0.29636133 2:-3.4575 
1 1:0.32821484 2:-3.377375 
1 1:0.27573242 2:-2.024875 
1 1:0.27304883 2:-2.7235625 
0.6399595320666089 1:0.21431445 2:-3.4475625 
0.3671597027303017 1:0.30435937 2:-6.94625 
0.9637912880164177 1:0.28625391 2:-5.183375 
1 1:0.2853125 2:-2.308875 
1 1:0.35437891 2:-3.67175 
1 1:0.22610742 2:-1.3413125 
1 1:0.37297266 2:-4.1598125 
1 1:0.32701953 2:-4.8238125 
0.5060592487134328 1:0.28318945 2:-4.6805625 
1 1:0.48145117 2:-3.388 
0.3378727630969721 1:0.35354297 2:-7.0851875 
1 1:0.27303906 2:-3.137875 
0.0281475969915354 1:0.30747852 2:-5.424875 
1 1:0.19296289 2:-2.1853125 
1 1:0.27775586 2:-1.43175 
1 1:0.27455664 2:-1.5620625 
1 1:0.24530078 2:-2.4893125 
0.03873207599854173 1:0.31470898 2:-5.022375 
1 1:0.33156641 2:-3.792 
0.2412304000868017 1:0.37425977 2:-6.9378125 
1 1:0.23399219 2:-2.62225 
0.4104553814057334 1:0.068048828 2:-0.315 
1 1:0.19316602 2:-1.945125 
1 1:0.24685352 2:-3.0428125 
1 1:0.24696484 2:-2.446625 
0.2995481405889657 1:0.30987109 2:-4.26675 
1 1:0.26213867 2:-2.9094375 
1 1:0.2595918 2:-3.181375 
1 1:0.42212695 2:-5.196375 
0.3704028112060714 1:0.19116602 2:-1.706625 
1 1:0.37288086 2:-4.37825 
1 1:0.38552344 2:-4.6464375 
1 1:0.2102168 2:-2.0330625 
0.4339625320349254 1:0.43723828 2:-7.1905 
1 1:0.37932617 2:-3.9695 
0.5341552617654129 1:0.17983789 2:-2.21075 
0.7340379228574454 1:0.44936328 2:-4.8013125 
1 1:0.39195898 2:-3.22275 
0.5592296458376924 1:0.28948047 2:-5.2085 
1 1:0.41378516 2:-2.7640625 
0.05927201378714372 1:0.35732227 2:-6.6468125 
0.08934663310055616 1:0.35055469 2:-5.5453125 
0.2276382360608799 1:0.25410547 2:-5.11025 
0.2536215796467529 1:0.24111133 2:-4.3975625 
1 1:0.3052793 2:-3.3136875 
1 1:0.24243945 2:-2.4279375 
1 1:0.55966797 2:-2.449125 
1 1:0.35157227 2:-1.6589375 
1 1:0.29561328 2:-3.4695625 
1 1:0.2521875 2:-3.2321875 
1 1:0.34248828 2:-3.007375 
0.1400602462188537 1:0.26810547 2:-6.101125 
1 1:0.33385547 2:-3.1575 
1 1:0.22311914 2:-3.4271875 
0.02067997382691989 1:0.40074023 2:-6.8451875 
1 1:0.33954297 2:-2.632375 
1 1:0.41551562 2:-4.2259375 
1 1:0.2454043 2:-2.608125 
1 1:0.34483398 2:-3.801125 
0.922274483035629 1:0.30825977 2:-4.8471875 
0.0054198921556494 1:0.34190039 2:-5.7218125 
1 1:0.39958398 2:-4.91325 
0.8504795357076427 1:0.28653711 2:-3.8649375 
1 1:0.33283984 2:-3.3153125 
0.3242470051738953 1:0.45968945 2:-5.043375 
1 1:0.27630664 2:-2.03475 
1 1:0.40304883 2:-4.162625 
1 1:0.36439648 2:-3.8094375 
1 1:0.28808594 2:-2.365375 
1 1:0.29001562 2:-3.314 
1 1:0.29567383 2:-3.2821875 
0.08874661573836472 1:0.34041602 2:-5.3165625 
0.06148791765197103 1:0.19910742 2:-3.6005 
1 1:0.48453711 2:-3.700375 
1 1:0.27653906 2:-1.923375 
1 1:0.46163086 2:-3.4993125 
1 1:0.5193418 2:-3.74275 
0.2280028210744076 1:0.26068359 2:-4.4959375 
0.007808736930218788 1:0.37833008 2:-5.1865 
1 1:0.26740625 2:-0.86625 
1 1:0.2689082 2:-3.412375 
1 1:0.22366797 2:-1.3763125 
0.08850494023383701 1:0.29265039 2:-4.442625 
1 1:0.24613477 2:-3.1555 
0.4647602207298631 1:0.24218164 2:-3.77425 
0.1739213502443834 1:0.083884766 2:-1.3044375 
1 1:0.35942578 2:-2.83575 
1 1:0.30999805 2:-3.1918125 
1 1:0.23984961 2:-2.801125 
0.7879205504584756 1:0.27514453 2:-3.4434375 
1 1:0.30804102 2:-2.93125 
0.191527385377913 1:0.36796094 2:-5.66 
1 1:0.365375 2:-2.8435 
0.7934983988345629 1:0.37133594 2:-5.0890625 
1 1:0.54072852 2:-4.29325 
1 1:0.48939844 2:-4.644625 
0.01112151617983291 1:0.1688457 2:-0.58225 
1 1:0.29617773 2:-2.55825 
1 1:0.25279492 2:-3.1105 
1 1:0.39370508 2:-2.9211875 
-1 1:0.28954102 2:-4.644125 
-0.08845889715538859 1:0.41480664 2:-3.7495625 
-1 1:0.27998633 2:-3.1631875 
-1 1:0.17680469 2:-0.7626875 
-1 1:0.41479102 2:-3.7660625 
-1 1:0.29141602 2:-3.130625 
-0.8530771669293314 1:0.57900781 2:-2.849625 
-1 1:0.42260938 2:-4.761125 
-1 1:0.31656641 2:-2.7206875 
-1 1:0.31361914 2:-3.78425 
-1 1:0.30116602 2:-3.454875 
-1 1:0.29473242 2:-3.053 
-0.8135767034122695 1:0.41161914 2:-3.4816875 
-1 1:0.47179688 2:-4.263875 
-1 1:0.39529102 2:-4.564375 
-1 1:0.39301562 2:-4.5141875 
-1 1:0.45131445 2:-4.8573125 
-1 1:0.39408398 2:-5.8528125 
-1 1:0.38668359 2:-2.8516875 
-0.3701764590248479 1:0.50985352 2:-2.284 
-0.1873215426700778 1:0.3864375 2:-1.5735 
-1 1:0.30149805 2:-3.2504375 
-1 1:0.28036523 2:-3.41475 
-1 1:0.31999023 2:-3.4375 
-1 1:0.31866406 2:-3.081875 
-1 1:0.39345312 2:-2.227625 
-1 1:0.28839453 2:-3.682625 
-1 1:0.42789844 2:-4.0163125 
-0.7578720131343685 1:0.27570508 2:-1.7501875 
-1 1:0.27545117 2:-3.180875 
-1 1:0.2234082 2:-2.465375 
-1 1:0.28710156 2:-3.6726875 
-1 1:0.29000391 2:-4.12425 
-1 1:0.31611523 2:-3.318625 
-1 1:0.33362305 2:-3.660375 
-0.0008803949570029472 1:0.40778125 2:-2.2558125 
-1 1:0.31162891 2:-3.9908125 
-1 1:0.26838477 2:-3.1514375 
-1 1:0.19477539 2:-1.5100625 
-1 1:0.26169922 2:-2.8788125 
-0.5981436382824876 1:0.5994668 2:-2.6765 
-1 1:0.32251953 2:-3.13 
-1 1:0.38176172 2:-3.197125 
-1 1:0.31138867 2:-2.953875 
-1 1:0.28545508 2:-4.1744375 
-1 1:0.29399219 2:-2.9063125 
-1 1:0.34798633 2:-4.020125 
-1 1:0.29919727 2:-3.645375 
-0.03558176662367267 1:0.44145898 2:-2.5428125 
-1 1:0.24614648 2:-3.1475 
-1 1:0.34317578 2:-3.28275 
-1 1:0.35558789 2:-3.6624375 
-1 1:0.23377734 2:-4.336375 
-1 1:0.25773828 2:-3.7175625 
-1 1:0.17488281 2:-1.0215 
-1 1:0.22948242 2:-2.170625 
-1 1:0.37283398 2:-2.17775 
-1 1:0.18727148 2:-2.3613125 
-1 1:0.25310938 2:-3.3103125 
-1 1:0.29048438 2:-2.908625 
-1 1:0.3094082 2:-3.7965 
-1 1:0.26782617 2:-3.1501875 
-1 1:0.26945117 2:-2.346375 
-1 1:0.15948437 2:-2.029 
-1 1:0.29429687 2:-3.6584375 
-1 1:0.26806055 2:-2.1526875 
-1 1:0.22574414 2:-2.3684375 
-1 1:0.34233203 2:-3.7615 
-1 1:0.37255469 2:-4.3179375 
-1 1:0.26541797 2:-2.87675 
-0.2237253485148041 1:0.53860547 2:-3.504 
-1 1:0.28378711 2:-2.2425 
-1 1:0.35166406 2:-3.349 
-1 1:0.26153125 2:-3.40475 
-1 1:0.28976367 2:-2.34075 
-1 1:0.2684375 2:-2.4340625 
-1 1:0.27430469 2:-2.704875 
-0.777376127807064 1:0.33640039 2:-2.6640625 
-0.3033088782384992 1:0.34080859 2:-1.552 
-1 1:0.30784375 2:-3.0463125 
-1 1:0.3090957 2:-3.85075 
-1 1:0.38376562 2:-3.8575625 
-0.5753989313515403 1:0.35373438 2:-2.158625 
-1 1:0.2551543 2:-2.345875 
-1 1:0.40021875 2:-3.975125 
-1 1:0.37047461 2:-4.07375 
-0.381914117159038 1:0.43533203 2:-3.6585 
-1 1:0.3046875 2:-2.61025 
-1 1:0.30416992 2:-2.0409375 
-1 1:0.30499609 2:-2.81075 
-1 1:0.34332617 2:-3.66225 
-1 1:0.35253516 2:-3.5119375 
-1 1:0.35586719 2:-4.579125 
-1 1:0.24919336 2:-1.8699375 
-1 1:0.3222207 2:-2.497375 
-1 1:0.17047266 2:-2.255125 
-1 1:0.31731445 2:-4.57025 
-1 1:0.23729883 2:-1.4004375 
-1 1:0.28313086 2:-3.6645625 
-1 1:0.27696094 2:-3.481375 
-1 1:0.2591543 2:-1.780875 
-1 1:0.18749023 2:-3.19425 
-1 1:0.24311523 2:-2.8549375 
-1 1:0.43799805 2:-3.4333125 
-1 1:0.37676367 2:-5.549 
-1 1:0.31 2:-3.2896875 
-1 1:0.31063477 2:-3.77025 
-1 1:0.28365039 2:-2.8665 
-1 1:0.42345313 2:-3.9575 
-0.6700762725402704 1:0.42935742 2:-3.0300625 
-1 1:0.22990625 2:-4.26575 
-1 1:0.39503906 2:-4.05675 
-1 1:0.30292383 2:-2.5051875 
-1 1:0.284625 2:-5.445375 
-1 1:0.33414648 2:-4.8459375 
-1 1:0.42413672 2:-4.6000625 
-1 1:0.42115039 2:-5.187125 
-1 1:0.3230332 2:-5.3358125 
-1 1:0.33288867 2:-4.261125 
-1 1:0.29560352 2:-3.0410625 
-1 1:0.27342773 2:-2.5523125 
-1 1:0.25826562 2:-1.6623125 
-1 1:0.31220117 2:-1.354625 
-1 1:0.47623633 2:-4.3488125 
-1 1:0.2080957 2:-1.8283125 
-1 1:0.21630273 2:-1.4938125 
-1 1:0.25568945 2:-2.894875 
-0.7907777368933243 1:0.33024219 2:-3.121625 
-1 1:0.24593945 2:-2.1311875 
-1 1:0.24601367 2:-2.191 
-1 1:0.24747852 2:-2.792 
-1 1:0.42885742 2:-3.095875 
-0.6606546962738359 1:0.38256445 2:-3.61 
-1 1:0.27236914 2:-3.7054375 
-1 1:0.34983789 2:-4.0816875 
-0.4648679946714267 1:0.35217578 2:-2.085125 
-1 1:0.39942773 2:-6.0199375 
-0.2072654342441166 1:0.46775 2:-3.990125 
-1 1:0.21495703 2:-1.86225 
-1 1:0.22565039 2:-2.6808125 
-1 1:0.27693164 2:-3.3294375 
-1 1:0.35406641 2:-3.704375 
-0.06736247286759436 1:0.38451172 2:-3.2376875 
-1 1:0.26488281 2:-3.2199375 
-1 1:0.22852344 2:-2.6631875 
-0.1697314849195034 1:0.53756055 2:-1.4563125 
-1 1:0.25391211 2:-2.442625 
-1 1:0.28090234 2:-3.5523125 
-1 1:0.3136582 2:-3.195375 
-1 1:0.25118164 2:-1.898125 
-0.04212593741382352 1:0.40866211 2:-2.91425 
-1 1:0.19125977 2:-2.2409375 
-1 1:0.44136914 2:-5.2418125 
-1 1:0.3462832 2:-4.65725 
-1 1:0.35276562 2:-4.7933125 
-0.2965978419437404 1:0.40429687 2:-1.10175 
-1 1:0.41318555 2:-4.2830625 
-1 1:0.21748633 2:-2.4785 
-1 1:0.459 2:-5.2013125 
-1 1:0.34100781 2:-3.860125 
-1 1:0.33469531 2:-2.93075 
-1 1:0.26811719 2:-3.05975 
-1 1:0.3195957 2:-4.8738125 
-1 1:0.39208203 2:-3.828125 
-1 1:0.23667969 2:-3.285 
-1 1:0.41963086 2:-2.7916875 
-1 1:0.65594141 2:-2.2291875 
-1 1:0.31175195 2:-2.6984375 
-1 1:0.37692773 2:-6.066 
-1 1:0.24733789 2:-3.4609375 
-1 1:0.23803906 2:-1.2504375 
-1 1:0.33924023 2:-3.7311875 
-0.7048353540816327 1:0.36394531 2:-1.63875 
-1 1:0.45625781 2:-3.9156875 
-0.312230006255906 1:0.49548828 2:-3.364375 
-1 1:0.28426953 2:-2.9063125 
-1 1:0.43245703 2:-6.32425 
-1 1:0.29741211 2:-2.8059375 
-1 1:0.28708789 2:-2.5873125 
-1 1:0.20431836 2:-1.3066875 
-0.1961264361266573 1:0.31275195 2:-2.2413125 
-1 1:0.25545703 2:-2.2199375 
-1 1:0.29102539 2:-2.3373125 
-1 1:0.33723437 2:-1.4580625 
-1 1:0.37512109 2:-4.1375 
-1 1:0.37527344 2:-4.52 
-1 1:0.42236523 2:-3.9070625 
-1 1:0.36245508 2:-4.3391875 
-1 1:0.29295898 2:-4.6575625 
-1 1:0.22850586 2:-1.869875 
-0.699018488764106 1:0.28496484 2:-2.3533125 
-1 1:0.28685352 2:-2.059875 
-1 1:0.48700977 2:-3.3898125 
-1 1:0.2698418 2:-2.0849375 
-1 1:0.58155273 2:-2.5085 
-0.5962071384044038 1:0.52079102 2:-2.4798125 
-1 1:0.52735156 2:-4.2251875 
-1 1:0.26952148 2:-1.5008125 
-1 1:0.36931641 2:-4.372125 
-1 1:0.22754492 2:-2.5660625 
-1 1:0.27792773 2:-1.9775625 
-1 1:0.30395312 2:-2.4815625 
-0.3754131831780185 1:0.40689063 2:-2.2748125 
-0.1989978655152453 1:0.42963477 2:-2.2746875 
-1 1:0.371 2:-3.200125 
-1 1:0.24449219 2:-1.5425 
-1 1:0.25449219 2:-2.45125 
-1 1:0.32063867 2:-2.9024375 
-0.5274671430077411 1:0.40037695 2:-1.956125 
-1 1:0.32571484 2:-2.687 
-0.6425306689268904 1:0.52552539 2:-3.46175 
-0.602233421728314 1:0.38722266 2:-1.817375 
-1 1:0.2248125 2:-1.0631875 
-1 1:0.20659375 2:-1.3813125 
-1 1:0.30467383 2:-2.7651875 
-1 1:0.2792793 2:-4.419625 
-1 1:0.40448242 2:-3.771 
-1 1:0.27438672 2:-1.98 
-1 1:0.29856836 2:-1.3805625 
-0.8932041971481786 1:0.35795508 2:-2.40525 
-1 1:0.28180078 2:-2.841625 
-1 1:0.30118164 2:-2.975875 
-1 1:0.25274414 2:-1.9728125 
-1 1:0.2563418 2:-2.9838125 
-1 1:0.25343945 2:-3.0164375 
-1 1:0.27555469 2:-3.6163125 
-1 1:0.29208203 2:-3.0359375 
-1 1:0.51782031 2:-2.9840625 
-1 1:0.19023633 2:-2.2865 
-1 1:0.34212109 2:-3.7601875 
-1 1:0.29614063 2:-3.1636875 
-1 1:0.20087109 2:-0.9624375 
-1 1:0.23283398 2:-2.39575 
-1 1:0.19886328 2:-2.5488125 
-1 1:0.2208125 2:-2.5071875 
-1 1:0.27175977 2:-2.2280625 
-1 1:0.31622266 2:-2.7886875 
-0.2058804606575405 1:0.4820332 2:-1.2183125 
-1 1:0.19142383 2:-2.952 
-1 1:0.41204297 2:-4.5963125 
-0.4264651858422654 1:0.28090625 2:-1.948125 
-1 1:0.31465625 2:-3.7899375 
-1 1:0.40140625 2:-4.0538125 
-1 1:0.4467832 2:-4.06625 
-0.1929863734221928 1:0.50605664 2:-2.7380625 
-1 1:0.52707617 2:-4.68575 
-1 1:0.23301758 2:-2.77575 
-1 1:0.22523437 2:-4.4809375 
-1 1:0.22986133 2:-2.7025625 
-0.0735228846420011 1:0.38278711 2:-1.911375 
-0.6395732566246027 1:0.52820117 2:-3.1533125 
-1 1:0.22896484 2:-3.422125 
-0.5653187890863308 1:0.53497656 2:-4.1345 
-0.927695828536465 1:0.42437891 2:-2.695125 
-1 1:0.37243359 2:-3.5903125 
-0.7637009552010956 1:0.57983398 2:-1.5735625 
-1 1:0.36764844 2:-3.4171875 
-1 1:0.29967383 2:-4.1315625 
-1 1:0.27999414 2:-2.9005 
-1 1:0.19261133 2:-1.907375 
-1 1:0.24225781 2:-3.93575 
-1 1:0.45814258 2:-3.6809375 
-1 1:0.4121875 2:-4.211 
-1 1:0.26678906 2:-3.29475 
-1 1:0.28736133 2:-3.1313125 
-1 1:0.40276563 2:-3.0210625 
-1 1:0.30507812 2:-4.5428125 
-1 1:0.19270117 2:-2.1895 
-1 1:0.16695508 2:-1.788625 
-1 1:0.38346484 2:-2.8445 
-1 1:0.36126172 2:-3.423875 
-1 1:0.32610547 2:-3.250875 
-1 1:0.27660547 2:-3.0056875 
-1 1:0.24084375 2:-2.174125 
-1 1:0.26692383 2:-3.2095 
-1 1:0.25010547 2:-4.1759375 
-0.2174928538869795 1:0.39108984 2:-1.8384375 
-1 1:0.45036328 2:-3.8025 
-1 1:0.25866406 2:-5.145625 
-1 1:0.31988281 2:-3.0180625 
-1 1:0.46235742 2:-5.634125 
-1 1:0.21296484 2:-1.6684375 
-1 1:0.23607031 2:-2.3098125 
-1 1:0.25761328 2:-2.3586875 
-1 1:0.41818359 2:-4.63875 
-0.2037123279570054 1:0.43891406 2:-2.859 
-1 1:0.46525391 2:-4.268125 
-0.8416552406568902 1:0.41381055 2:-3.4913125 
-1 1:0.36124023 2:-3.3540625 
-1 1:0.3807207 2:-4.4460625 
-1 1:0.36006641 2:-3.2760625 
-1 1:0.45269336 2:-4.4751875 
-1 1:0.26485742 2:-2.1836875 
-1 1:0.30535547 2:-3.164875 
-1 1:0.37462109 2:-4.6270625 
-1 1:0.24718164 2:-3.4359375 
-1 1:0.3564043 2:-3.6638125 
-1 1:0.39567969 2:-3.775375 
-1 1:0.44560547 2:-3.518625 
-1 1:0.44405469 2:-4.3299375 
-0.2459504040926692 1:0.42545898 2:-2.3104375 
-1 1:0.29819141 2:-3.56975 
-1 1:0.37061719 2:-3.7656875 
-1 1:0.44163867 2:-4.752125 
-1 1:0.34638672 2:-3.5878125 
-1 1:0.37478516 2:-3.9449375 
-1 1:0.30768945 2:-2.5954375 
-1 1:0.33163281 2:-3.3355 
-0.4225923222484357 1:0.52864844 2:-2.0689375 
-1 1:0.32235156 2:-4.26875 
-1 1:0.37616602 2:-4.028 
-1 1:0.25164063 2:-3.43575 
-1 1:0.2812207 2:-2.873125 
-1 1:0.33127734 2:-3.2449375 
-0.6407281694956369 1:0.43997461 2:-1.51125 
-1 1:0.29558984 2:-2.858 
-1 1:0.30986328 2:-2.678625 
-1 1:0.29772266 2:-2.9845 
-1 1:0.28343945 2:-1.48925 
-1 1:0.33359961 2:-2.69725 
-1 1:0.28352734 2:-3.212875 
-1 1:0.30418555 2:-2.98925 
-1 1:0.2688418 2:-2.9066875 
-1 1:0.35154688 2:-4.05375 
-1 1:0.36387305 2:-2.0845625 
-1 1:0.26034961 2:-2.928375 
-0.703282086678423 1:0.3802207 2:-3.17925 
-1 1:0.26330664 2:-1.4164375 
-1 1:0.33468945 2:-3.2365 
-1 1:0.34103711 2:-3.227875 
-1 1:0.22388477 2:-2.2773125 
-0.3365702289623211 1:0.39248828 2:-3.027875 
-1 1:0.42236328 2:-6.1394375 
-1 1:0.37757422 2:-4.804125 
-1 1:0.18282422 2:-2.9845625 
-1 1:0.3836875 2:-4.3201875 
-1 1:0.38060742 2:-4.1420625 
-1 1:0.31829297 2:-3.0553125 
-1 1:0.30875 2:-3.484375 
-1 1:0.33810352 2:-4.35 
-1 1:0.47415625 2:-4.8995625 
-1 1:0.31277148 2:-4.653625 
-1 1:0.35726367 2:-4.68325 
-1 1:0.29078711 2:-2.114 
-1 1:0.31504492 2:-5.0301875 
-1 1:0.42924219 2:-6.279125 
-1 1:0.38738477 2:-2.848625 
-0.09652741028382292 1:0.5178125 2:-2.3533125 
-1 1:0.34706836 2:-4.571625 
-1 1:0.33739062 2:-3.35425 
-1 1:0.26228125 2:-1.668 
-1 1:0.32758203 2:-4.008125 
-1 1:0.2096543 2:-3.3384375 
-1 1:0.3324668 2:-3.562 
-1 1:0.26744336 2:-2.9053125 
-1 1:0.19701367 2:-2.13925 
-0.3199723835507867 1:0.35609766 2:-2.9411875 
-1 1:0.31833008 2:-2.2700625 
-1 1:0.2439375 2:-3.4745625 
-0.5426374860849581 1:0.49685547 2:-1.6393125 
-1 1:0.25426758 2:-5.0411875 
-1 1:0.37638477 2:-4.545875 
-0.1068248558294021 1:0.3755918 2:-2.10825 
-1 1:0.23039844 2:-3.1139375 
-1 1:0.24535742 2:-3.0871875 
-1 1:0.23882813 2:-3.4575625 
-1 1:0.41301172 2:-4.127 
-1 1:0.42745117 2:-4.3916875 
-1 1:0.38888086 2:-2.0305 
-1 1:0.25628516 2:-2.2579375 
-1 1:0.28953516 2:-4.65275 
-1 1:0.31485156 2:-4.1795 
-1 1:0.29781641 2:-4.276625 
-1 1:0.41635938 2:-3.8374375 
-1 1:0.21245312 2:-2.58725 
-1 1:0.35462891 2:-3.405125 
-1 1:0.27363867 2:-2.9935 
-1 1:0.28655664 2:-3.3416875 
-1 1:0.37261328 2:-4.8285 
-1 1:0.22231836 2:-4.296375 
-1 1:0.53393555 2:-3.7854375 
-1 1:0.47564063 2:-3.4048125 
-0.3738644917105965 1:0.47471289 2:-1.781 
-1 1:0.36937305 2:-4.2165 
-1 1:0.43727148 2:-4.1584375 
-1 1:0.30439258 2:-3.55325 
-1 1:0.28432422 2:-3.0955625 
-1 1:0.2388457 2:-2.1976875 
-1 1:0.21323437 2:-1.5406875 
-0.8040404742078908 1:0.64953711 2:-2.5906875 
-1 1:0.22610547 2:-2.844625 
-1 1:0.34611328 2:-1.1154375 
-1 1:0.37933789 2:-3.19475 
-1 1:0.24414648 2:-2.412875 
-1 1:0.32032812 2:-4.418125 
-1 1:0.33449023 2:-3.8235625 
-1 1:0.30874805 2:-3.3035 
-1 1:0.30172266 2:-3.0673125 
-1 1:0.14666406 2:-2.631125 
-1 1:0.29395313 2:-2.5784375 
-1 1:0.13879883 2:-1.968 
-1 1:0.30839453 2:-3.525375 
-1 1:0.4420332 2:-3.6693125 
-0.9626290305222935 1:0.38763477 2:-1.709875 
-1 1:0.28627148 2:-1.2314375 
-1 1:0.32691016 2:-2.5905 
-1 1:0.20154688 2:-2.2619375 
-1 1:0.32543164 2:-5.8575625 
-1 1:0.46808789 2:-4.909125 
-1 1:0.24508984 2:-1.8170625 
-1 1:0.3315957 2:-3.4609375 
-1 1:0.29425977 2:-3.531625 
-1 1:0.22809766 2:-2.4148125 
-1 1:0.33297852 2:-3.5381875 
-1 1:0.27979883 2:-1.9578125 
-1 1:0.29291016 2:-3.6591875 
-1 1:0.43209766 2:-2.5886875 
-1 1:0.40568359 2:-4.743125 
-1 1:0.33852344 2:-3.2181875 
-1 1:0.27026563 2:-4.021375 
-1 1:0.37463477 2:-3.621625 
-1 1:0.33430664 2:-3.9859375 
-1 1:0.4660332 2:-3.523875 
-1 1:0.20394727 2:-3.174375 
-1 1:0.35210742 2:-4.3413125 
-1 1:0.31341016 2:-3.07175 
-0.9464003300811095 1:0.48227734 2:-4.33475 
-1 1:0.29725586 2:-4.34775 
-1 1:0.25674023 2:-4.3780625 
-1 1:0.31082422 2:-3.0363125 
-1 1:0.27891211 2:-4.927 
-1 1:0.24403516 2:-3.33375 
-1 1:0.32245703 2:-3.907375 
-1 1:0.38885547 2:-2.417625 
-1 1:0.22771875 2:-1.64375 
-1 1:0.27932617 2:-4.1611875 
-1 1:0.30602148 2:-4.477625 
-1 1:0.25616016 2:-2.35625 
-0.2947733125321529 1:0.37949805 2:-2.4606875 
-1 1:0.36703125 2:-4.044 
-1 1:0.4214707 2:-4.5469375 
-1 1:0.47233984 2:-3.6100625 
-1 1:0.47945508 2:-4.4569375 
-1 1:0.25978906 2:-1.63275 
-1 1:0.23420703 2:-1.3368125 
-1 1:0.39370703 2:-3.9125 
-1 1:0.37240234 2:-3.902125 
-1 1:0.24129883 2:-2.6834375 
-1 1:0.21372266 2:-3.2156875 
-1 1:0.21819531 2:-2.891375 
-1 1:0.16750391 2:-2.8849375 
-1 1:0.33814844 2:-3.5335 
-1 1:0.44792773 2:-5.903 
-1 1:0.17069531 2:-1.9250625 
-1 1:0.28618945 2:-3.7015625 
-0.2345461274712688 1:0.31925977 2:-1.5941875 
-1 1:0.35754883 2:-3.372625 
-1 1:0.27617578 2:-2.6374375 
-1 1:0.26166016 2:-2.042 
-1 1:0.25358594 2:-0.9501875 
-1 1:0.28428125 2:-3.5425 
-1 1:0.3309082 2:-3.58025 
-0.6480459157313255 1:0.33367383 2:-2.739 
-1 1:0.25308594 2:-4.6645625 
-1 1:0.24892187 2:-2.3585625 
-1 1:0.28037109 2:-3.8800625 
-1 1:0.34345898 2:-3.634875 
-1 1:0.36414062 2:-3.597 
-1 1:0.15487695 2:-2.084875 
-1 1:0.37326563 2:-4.7308125 
-1 1:0.31025977 2:-2.604625 
-1 1:0.31291602 2:-3.3015625 
-1 1:0.18492578 2:-3.3076875 
-1 1:0.26679102 2:-4.0938125 
-1 1:0.39617188 2:-4.6318125 
-0.411845191304771 1:0.31989258 2:-1.6335625 
-1 1:0.26133203 2:-4.7173125 
-1 1:0.22961328 2:-4.3941875 
-1 1:0.27303906 2:-3.471875 
-1 1:0.27155469 2:-3.040875 
-0.5241104753678051 1:0.38167773 2:-1.8676875 
-1 1:0.50256445 2:-4.464375 
-1 1:0.26113086 2:-1.6146875 
-1 1:0.22906641 2:-1.590375 
-1 1:0.24961133 2:-3.538375 
-1 1:0.30421484 2:-4.210125 
-1 1:0.31301172 2:-2.7151875 
-1 1:0.41433789 2:-4.3966875 
-1 1:0.26388086 2:-2.4286875 
-1 1:0.25422266 2:-2.438875 
-1 1:0.37899609 2:-6.203375 
-1 1:0.33210742 2:-3.9484375 
-1 1:0.40867188 2:-3.7954375 
-1 1:0.37616406 2:-3.7056875 
-1 1:0.30995313 2:-4.216375 
-1 1:0.23373633 2:-3.3294375 
-1 1:0.38800586 2:-4.0814375 
-0.3058974349404821 1:0.54441992 2:-4.3748125 
-0.008598524866064714 1:0.39082422 2:-2.3981875 
-1 1:0.32529102 2:-3.8465 
-0.2470524182166662 1:0.47286914 2:-4.1599375 
-1 1:0.2397168 2:-3.8524375 
-1 1:0.31316992 2:-2.777625 
-1 1:0.35650586 2:-5.135 
-1 1:0.4066875 2:-5.1200625 
-1 1:0.24638867 2:-2.7195625 
-1 1:0.27299023 2:-1.2601875 
-1 1:0.34374219 2:-3.757125 
-0.7854518185998479 1:0.38128516 2:-2.86675 
-1 1:0.50226563 2:-3.4804375 
-1 1:0.32582227 2:-3.9795 
-1 1:0.32643555 2:-3.9843125 
-1 1:0.31682031 2:-3.3043125 
-1 1:0.32289648 2:-3.127125 
-1 1:0.17209766 2:-3.677625 
-1 1:0.24733008 2:-3.39625 
-1 1:0.19224414 2:-3.40725 
-1 1:0.21661914 2:-2.7246875 
-1 1:0.32263086 2:-5.6656875 
-1 1:0.34041602 2:-3.856875 
-1 1:0.30180469 2:-3.6710625 
-1 1:0.3418125 2:-4.4185625 
-1 1:0.28764844 2:-2.8450625 
-1 1:0.35964258 2:-2.9628125 
-1 1:0.33467969 2:-3.48525 
-1 1:0.25717773 2:-2.1083125 
-1 1:0.30219531 2:-2.524375 
-0.7352596246891906 1:0.38744727 2:-3.2230625 
-1 1:0.23957617 2:-2.785375 
-1 1:0.21975195 2:-2.9699375 
-1 1:0.23557227 2:-1.9678125 
-1 1:0.19851367 2:-2.452625 
-1 1:0.28487891 2:-2.8999375 
-0.2729708477074725 1:0.31198242 2:-2.8375 
-1 1:0.43593359 2:-4.35875 
-1 1:0.24583008 2:-2.7515625 
-1 1:0.38823047 2:-3.969 
-1 1:0.26628711 2:-3.311375 
-1 1:0.2614707 2:-3.76825 
-1 1:0.2154375 2:-2.541125 
-0.5079333814445686 1:0.59253906 2:-2.77375 
-1 1:0.43018359 2:-4.062625 
-1 1:0.21253711 2:-1.875875 
-1 1:0.20956836 2:-2.620875 
-1 1:0.33180469 2:-5.012375 
-0.05896697426673423 1:0.50798047 2:-2.635 
-1 1:0.22947852 2:-1.157625 
-1 1:0.21206055 2:-1.68725 
-1 1:0.25664063 2:-5.19725 
-1 1:0.20821484 2:-2.039 
-1 1:0.31141211 2:-1.650875 
-1 1:0.52775391 2:-2.3980625 
-0.4345894864178304 1:0.36345508 2:-3.368625 
-1 1:0.31237305 2:-1.243125 
-1 1:0.34324414 2:-3.4438125 
-1 1:0.23285156 2:-2.8511875 
-0.1817075288832036 1:0.33908984 2:-2.6120625 
-1 1:0.25696484 2:-2.8865625 
-1 1:0.22000586 2:-2.8480625 
-0.8699488459355706 1:0.42184766 2:-3.1485625 
-1 1:0.30731445 2:-2.7576875 
-1 1:0.40020312 2:-5.3531875 
-1 1:0.3078125 2:-3.290375 
-0.07498285070803914 1:0.37652539 2:-2.0765 
-1 1:0.35717578 2:-3.3101875 
-1 1:0.2195625 2:-3.7606875 
-1 1:0.40748633 2:-4.45825 
-1 1:0.29189063 2:-3.62475 
-1 1:0.31803516 2:-0.858 
-1 1:0.2967832 2:-3.249875 
-1 1:0.21849805 2:-2.5488125 
-1 1:0.21723047 2:-2.405125 
-1 1:0.17598242 2:-3.369 
-0.1960472323657914 1:0.40707813 2:-1.1791875 
-0.4232431561804598 1:0.38924414 2:-2.8080625 
-1 1:0.41820312 2:-4.4476875 
-1 1:0.1862207 2:-1.8210625 
-1 1:0.33051172 2:-3.44125 
-1 1:0.26119531 2:-2.6723125 
-1 1:0.29471289 2:-3.5785625 
-1 1:0.4627793 2:-3.8699375 
-1 1:0.45496094 2:-4.1976875 
-1 1:0.33593555 2:-1.454375 
-1 1:0.2871582 2:-5.202125 
-1 1:0.28694336 2:-2.7929375 
-1 1:0.36638086 2:-3.2388125 
-1 1:0.31888086 2:-3.5965625 
-1 1:0.32193359 2:-4.249 
-0.5078587244520095 1:0.49887891 2:-3.0599375 
-1 1:0.20806445 2:-2.2381875 
-1 1:0.26847266 2:-2.5329375 
-0.0668431768294714 1:0.43425977 2:-1.4025 
-0.9217511217853834 1:0.49054687 2:-1.1923125 
-1 1:0.34639453 2:-3.306375 
-1 1:0.37596094 2:-4.226625 
-1 1:0.12336719 2:-2.2634375 
-1 1:0.29544336 2:-3.8183125 
-1 1:0.20846289 2:-1.83875 
-1 1:0.21699023 2:-2.6715 
-1 1:0.39027148 2:-3.910875 
-1 1:0.30577734 2:-2.7071875 
-1 1:0.26130078 2:-1.77575 
-0.4906016988884128 1:0.35373047 2:-2.2044375 
-0.02721603616287381 1:0.37689063 2:-1.9815 
-1 1:0.29330469 2:-2.6145 
-1 1:0.20203516 2:-1.9925 
-0.3515636071835621 1:0.46979297 2:-3.54825 
-0.9903016836980265 1:0.46249414 2:-4.082 
-1 1:0.29613086 2:-3.8143125 
-1 1:0.29705078 2:-1.08675 
-1 1:0.24187695 2:-2.55675 
-1 1:0.25369141 2:-3.0723125 
-1 1:0.33874023 2:-3.620125 
-1 1:0.45176563 2:-4.928 
-1 1:0.24520117 2:-3.8335625 
-1 1:0.21876367 2:-3.14925 
-1 1:0.36907422 2:-4.377875 
-1 1:0.39445898 2:-3.74275 
-1 1:0.3034707 2:-4.362875 
-1 1:0.21710742 2:-3.57425 
-1 1:0.26060352 2:-0.900625 
-1 1:0.1994082 2:-2.0345625 
-1 1:0.31102734 2:-4.2288125 
-1 1:0.39310937 2:-3.974875 
-1 1:0.29471094 2:-3.955125 
-1 1:0.32065234 2:-3.4786875 
-1 1:0.38345508 2:-2.8543125 
-1 1:0.38675977 2:-4.5975 
-1 1:0.36498437 2:-5.0790625 
-1 1:0.40231445 2:-5.663875 
-1 1:0.31540625 2:-5.0003125 
-1 1:0.25908398 2:-4.4743125 
-0.3960720779103813 1:0.45823437 2:-2.62375 
-1 1:0.24066016 2:-2.2091875 
-1 1:0.25153516 2:-2.034125 
-1 1:0.24247852 2:-2.04975 
-1 1:0.23672852 2:-2.6773125 
-1 1:0.28387695 2:-3.0823125 
-1 1:0.29637891 2:-4.25375 
-1 1:0.34355469 2:-3.5971875 
-1 1:0.30484766 2:-2.807 
-1 1:0.23308594 2:-1.8355 
-1 1:0.2265332 2:-1.9818125 
-1 1:0.28305273 2:-2.2699375 
-1 1:0.27044922 2:-2.3269375 
-1 1:0.28905078 2:-3.00425 
-1 1:0.21552148 2:-3.5938125 
-0.735344032122877 1:0.38314062 2:-2.5246875 
-1 1:0.2550293 2:-2.693875 
-0.3087734983297661 1:0.38989063 2:-2.975 
-1 1:0.34558203 2:-3.37725 
-1 1:0.27432422 2:-2.5110625 
-1 1:0.30510547 2:-4.36925 
-1 1:0.23525781 2:-3.2718125 
-1 1:0.22897461 2:-3.203625 
-1 1:0.31274219 2:-3.13875 
-1 1:0.273625 2:-3.2185 
-1 1:0.3290957 2:-2.6263125 
-1 1:0.27366016 2:-3.7085625 
-1 1:0.27574414 2:-3.3558125 
-0.8818413355814831 1:0.40507617 2:-2.5451875 
-0.9477316874215788 1:0.28082617 2:-2.2118125 
-0.6125357577322258 1:0.52732813 2:-2.161125 
-1 1:0.5656875 2:-1.8881875 
-1 1:0.37178516 2:-3.7303125 
-1 1:0.27910352 2:-3.861875 
-1 1:0.29399805 2:-3.1081875 
-1 1:0.18329492 2:-3.2108125 
-1 1:0.25707813 2:-3.7184375 
-1 1:0.30579492 2:-2.78075 
-1 1:0.30825586 2:-3.884125 
-1 1:0.36222656 2:-4.23425 
-1 1:0.34605859 2:-3.7740625 
-1 1:0.18889648 2:-3.22025 
-1 1:0.42864844 2:-2.6571875 
-1 1:0.22916406 2:-3.683875 
-1 1:0.32730664 2:-4.8165625 
-1 1:0.27055078 2:-1.3105 
-1 1:0.46410742 2:-4.8941875 
-1 1:0.20561914 2:-2.3905625 
-1 1:0.24608203 2:-2.3425625 
-1 1:0.38394531 2:-3.999875 
-1 1:0.25060937 2:-5.4385 
-1 1:0.20381836 2:-2.5619375 
-1 1:0.338875 2:-3.906625 
-1 1:0.52079883 2:-3.961125 
-1 1:0.50749414 2:-4.0415625 
-1 1:0.2820918 2:-3.37775 
-1 1:0.33263867 2:-3.347125 
-1 1:0.22599414 2:-1.5581875 
-1 1:0.22520898 2:-3.5239375 
-1 1:0.37239258 2:-3.290125 
-1 1:0.17244727 2:-3.071125 
-0.761343705240632 1:0.47981836 2:-2.9349375 
-1 1:0.29727539 2:-3.397 
-1 1:0.30881445 2:-2.2698125 
-1 1:0.29321875 2:-3.302 
-1 1:0.34260937 2:-1.451625 
-1 1:0.32152344 2:-4.0238125 
-1 1:0.45166016 2:-4.38775 
-1 1:0.34605078 2:-4.539 
-0.1531861833646174 1:0.51006055 2:-1.950875 
-1 1:0.27541992 2:-5.0645625 
-1 1:0.25701367 2:-2.2314375 
-1 1:0.39397461 2:-5.0691875 
-0.1263962256336105 1:0.50944336 2:-3.7714375 
-0.9157444945362005 1:0.60116992 2:-1.4695625 
-1 1:0.54976758 2:-0.798875 
-1 1:0.26674219 2:-3.784625 
-1 1:0.24304883 2:-3.1459375 
-1 1:0.26878906 2:-2.6270625 
-1 1:0.28439453 2:-2.960375 
-1 1:0.21825195 2:-3.4581875 
-1 1:0.22953125 2:-4.0635 
-1 1:0.27570117 2:-2.78825 
-1 1:0.12339844 2:-2.0333125 
-1 1:0.20134375 2:-1.7034375 
-0.4817628897766627 1:0.3515918 2:-1.2735625 
-1 1:0.44529687 2:-1.3795 
-1 1:0.28163281 2:-3.179375 
-1 1:0.29655078 2:-0.9794375 
-1 1:0.29110156 2:-2.9788125 
-1 1:0.28016797 2:-2.0644375 
-1 1:0.26932422 2:-1.75025 
-1 1:0.31682227 2:-3.2665 
-1 1:0.35025195 2:-4.0530625 
-0.6175874828496722 1:0.33358203 2:-3.0415 
-1 1:0.37255273 2:-4.0279375 
-1 1:0.28870508 2:-4.330625 
-1 1:0.36936914 2:-3.5874375 
-1 1:0.27773047 2:-3.5765625 
-1 1:0.31573633 2:-3.224125 
-1 1:0.29299805 2:-3.0075 
-1 1:0.37058984 2:-3.2365 
-1 1:0.17296875 2:-1.639 
-1 1:0.34441992 2:-2.5821875 
-1 1:0.35310156 2:-2.948625 
-1 1:0.43007617 2:-2.785 
-0.2949143977101656 1:0.40937109 2:-2.7834375 
-1 1:0.24726953 2:-1.332625 
-1 1:0.38089844 2:-3.7419375 
-1 1:0.51585742 2:-6.6545 
-1 1:0.33559961 2:-4.079875 
-1 1:0.27632617 2:-1.724 
-1 1:0.23089453 2:-1.5915 
-1 1:0.32889453 2:-3.90775 
-0.8385064326829504 1:0.5284082 2:-3.2651875 
-1 1:0.42361328 2:-2.841875 
-0.4634014754431889 1:0.52434375 2:-2.0265 
-1 1:0.36358984 2:-4.906375 
-1 1:0.44803711 2:-4.523 
-1 1:0.33156445 2:-3.9391875 
-1 1:0.25251367 2:-3.199625 
-1 1:0.20988281 2:-2.778625 
-1 1:0.17054102 2:-1.676875 
-1 1:0.32132422 2:-3.2509375 
-1 1:0.42325586 2:-2.9004375 
-1 1:0.24242187 2:-2.8604375 
-1 1:0.21165039 2:-2.319875 
-0.07809998113704808 1:0.40747852 2:-2.684 
-1 1:0.39734961 2:-4.196375 
-1 1:0.43618359 2:-2.817625 
-1 1:0.31139258 2:-3.1750625 
-0.7845942788721978 1:0.31369727 2:-2.0728125 
-1 1:0.34693359 2:-2.9148125 
-1 1:0.34125391 2:-1.1159375 
-0.77399967106276 1:0.32591797 2:-3.0913125 
-1 1:0.23927539 2:-3.3649375 
-1 1:0.2566543 2:-2.5156875 
-0.6924865029208934 1:0.42980078 2:-3.1031875 
-0.476260718734699 1:0.27977539 2:-2.3631875 
-0.03928521864757095 1:0.33852734 2:-1.579375 
-1 1:0.49850195 2:-4.2493125 
-1 1:0.43819336 2:-6.483 
-0.6420296142624538 1:0.56148633 2:-3.396 
-1 1:0.35101172 2:-3.5235 
-1 1:0.37252148 2:-3.554625 
-1 1:0.21700781 2:-2.3581875 
-0.9520569142465189 1:0.34277734 2:-2.4906875 
-1 1:0.1554707 2:-1.6245625 
-1 1:0.34450977 2:-3.534625 
-1 1:0.30773633 2:-3.180875 
-1 1:0.50227539 2:-3.744 
-1 1:0.27089063 2:-2.5478125 
-1 1:0.40333008 2:-3.0384375 
-1 1:0.36656836 2:-4.133375 
-0.4631098646408801 1:0.48641992 2:-1.735875 
-1 1:0.32316602 2:-2.5864375 
-1 1:0.2394668 2:-3.7249375 
-1 1:0.24126758 2:-2.4735 
-1 1:0.32408008 2:-3.10675 
-1 1:0.41796875 2:-3.0170625 
-1 1:0.31038086 2:-3.6683125 
-0.2715861111822938 1:0.59758984 2:-2.2580625 
